<?xml version="1.0"?>
<opencv_storage>
<cascade>
  <stageType>BOOST</stageType>
  <featureType>HAAR</featureType>
  <height>24</height>
  <width>24</width>
  <stageParams>
    <boostType>GAB</boostType>
    <minHitRate>9.9500000476837158e-01</minHitRate>
    <maxFalseAlarm>5.0000000000000000e-01</maxFalseAlarm>
    <weightTrimRate>9.4999998807907104e-01</weightTrimRate>
    <maxDepth>1</maxDepth>
    <maxWeakCount>100</maxWeakCount></stageParams>
  <featureParams>
    <maxCatCount>0</maxCatCount>
    <featSize>1</featSize>
    <mode>BASIC</mode></featureParams>
  <stageNum>12</stageNum>
  <stages>
    <!-- stage 0 -->
    <_>
      <maxWeakCount>6</maxWeakCount>
      <stageThreshold>-2.4124534130096436e+00</stageThreshold>
      <weakClassifiers>
        <_>
          <internalNodes>
            0 -1 10 -4.4523131847381592e-01</internalNodes>
          <leafValues>
            6.1904764175415039e-01 -9.0439772605895996e-01</leafValues></_>
        <_>
          <internalNodes>
            0 -1 67 9.0304791927337646e-02</internalNodes>
          <leafValues>
            -6.4102828502655029e-01 4.4003593921661377e-01</leafValues></_>
        <_>
          <internalNodes>
            0 -1 66 5.1840199157595634e-03</internalNodes>
          <leafValues>
            -5.2878975868225098e-01 3.8137224316596985e-01</leafValues></_>
        <_>
          <internalNodes>
            0 -1 27 -2.6078712195158005e-02</internalNodes>
          <leafValues>
            5.9805166721343994e-01 -2.9463762044906616e-01</leafValues></_>
        <_>
          <internalNodes>
            0 -1 64 -1.3655635993927717e-03</internalNodes>
          <leafValues>
            4.2566290497779846e-01 -4.2724996805191040e-01</leafValues></_>
        <_>
          <internalNodes>
            0 -1 78 -1.3924523955211043e-04</internalNodes>
          <leafValues>
            3.2644873857498169e-01 -5.2651208639144897e-01</leafValues></_></weakClassifiers></_>
    <!-- stage 1 -->
    <_>
      <maxWeakCount>7</maxWeakCount>
      <stageThreshold>-1.8365322351455688e+00</stageThreshold>
      <weakClassifiers>
        <_>
          <internalNodes>
            0 -1 15 -2.0907407999038696e-01</internalNodes>
          <leafValues>
            -2.9577463865280151e-01 -9.1566264629364014e-01</leafValues></_>
        <_>
          <internalNodes>
            0 -1 84 -6.2861055135726929e-02</internalNodes>
          <leafValues>
            1.4309671521186829e-01 -6.3936585187911987e-01</leafValues></_>
        <_>
          <internalNodes>
            0 -1 47 7.1634235791862011e-04</internalNodes>
          <leafValues>
            8.2932196557521820e-02 -8.5129827260971069e-01</leafValues></_>
        <_>
          <internalNodes>
            0 -1 12 -7.8989773988723755e-02</internalNodes>
          <leafValues>
            4.2754235863685608e-01 -3.2395219802856445e-01</leafValues></_>
        <_>
          <internalNodes>
            0 -1 62 -1.8370920792222023e-02</internalNodes>
          <leafValues>
            5.1438939571380615e-01 -2.9834207892417908e-01</leafValues></_>
        <_>
          <internalNodes>
            0 -1 82 -6.4951926469802856e-04</internalNodes>
          <leafValues>
            3.5094615817070007e-01 -4.0391424298286438e-01</leafValues></_>
        <_>
          <internalNodes>
            0 -1 86 1.3929171836934984e-04</internalNodes>
          <leafValues>
            2.2462058067321777e-01 -6.3711416721343994e-01</leafValues></_></weakClassifiers></_>
    <!-- stage 2 -->
    <_>
      <maxWeakCount>7</maxWeakCount>
      <stageThreshold>-1.8377937078475952e+00</stageThreshold>
      <weakClassifiers>
        <_>
          <internalNodes>
            0 -1 20 -6.5702542662620544e-02</internalNodes>
          <leafValues>
            8.0000001192092896e-01 -8.9025545120239258e-01</leafValues></_>
        <_>
          <internalNodes>
            0 -1 38 -3.3523589372634888e-03</internalNodes>
          <leafValues>
            -6.7570783197879791e-02 -6.8107450008392334e-01</leafValues></_>
        <_>
          <internalNodes>
            0 -1 70 6.0010910965502262e-04</internalNodes>
          <leafValues>
            -5.5425894260406494e-01 2.4862161278724670e-01</leafValues></_>
        <_>
          <internalNodes>
            0 -1 23 2.0754758268594742e-02</internalNodes>
          <leafValues>
            1.6060231626033783e-01 -7.2732001543045044e-01</leafValues></_>
        <_>
          <internalNodes>
            0 -1 40 -5.6115873157978058e-03</internalNodes>
          <leafValues>
            -6.2293547391891479e-01 2.2688083350658417e-01</leafValues></_>
        <_>
          <internalNodes>
            0 -1 74 -3.9578881114721298e-03</internalNodes>
          <leafValues>
            4.5324668288230896e-01 -3.2280862331390381e-01</leafValues></_>
        <_>
          <internalNodes>
            0 -1 69 -5.1476368680596352e-03</internalNodes>
          <leafValues>
            4.5943328738212585e-01 -2.9117107391357422e-01</leafValues></_></weakClassifiers></_>
    <!-- stage 3 -->
    <_>
      <maxWeakCount>8</maxWeakCount>
      <stageThreshold>-1.6922780275344849e+00</stageThreshold>
      <weakClassifiers>
        <_>
          <internalNodes>
            0 -1 26 4.7972165048122406e-02</internalNodes>
          <leafValues>
            -8.9999997615814209e-01 -3.1914892792701721e-01</leafValues></_>
        <_>
          <internalNodes>
            0 -1 35 -3.5819694399833679e-02</internalNodes>
          <leafValues>
            1.9767138361930847e-01 -6.0604596138000488e-01</leafValues></_>
        <_>
          <internalNodes>
            0 -1 90 1.3011996634304523e-04</internalNodes>
          <leafValues>
            1.1931937187910080e-01 -6.2870645523071289e-01</leafValues></_>
        <_>
          <internalNodes>
            0 -1 54 -9.4133839011192322e-03</internalNodes>
          <leafValues>
            3.7061488628387451e-01 -3.2088500261306763e-01</leafValues></_>
        <_>
          <internalNodes>
            0 -1 39 -5.2711561322212219e-02</internalNodes>
          <leafValues>
            4.5292121171951294e-01 -2.6396748423576355e-01</leafValues></_>
        <_>
          <internalNodes>
            0 -1 88 1.1709082173183560e-05</internalNodes>
          <leafValues>
            2.8524062037467957e-01 -4.6145930886268616e-01</leafValues></_>
        <_>
          <internalNodes>
            0 -1 34 2.5215636924258433e-05</internalNodes>
          <leafValues>
            -3.7909626960754395e-01 3.1656157970428467e-01</leafValues></_>
        <_>
          <internalNodes>
            0 -1 43 9.0467408299446106e-02</internalNodes>
          <leafValues>
            -2.9268994927406311e-01 4.8975902795791626e-01</leafValues></_></weakClassifiers></_>
    <!-- stage 4 -->
    <_>
      <maxWeakCount>7</maxWeakCount>
      <stageThreshold>-1.5362989902496338e+00</stageThreshold>
      <weakClassifiers>
        <_>
          <internalNodes>
            0 -1 91 2.7372116222977638e-02</internalNodes>
          <leafValues>
            -8.8657844066619873e-01 5.5555558204650879e-01</leafValues></_>
        <_>
          <internalNodes>
            0 -1 29 -1.9183473289012909e-01</internalNodes>
          <leafValues>
            9.6399471163749695e-02 -6.1773586273193359e-01</leafValues></_>
        <_>
          <internalNodes>
            0 -1 77 5.5134687572717667e-03</internalNodes>
          <leafValues>
            5.6896597146987915e-02 -1.</leafValues></_>
        <_>
          <internalNodes>
            0 -1 63 -3.0588761437684298e-03</internalNodes>
          <leafValues>
            -6.8603193759918213e-01 1.4944761991500854e-01</leafValues></_>
        <_>
          <internalNodes>
            0 -1 87 1.7283980268985033e-03</internalNodes>
          <leafValues>
            1.0013129562139511e-01 -1.</leafValues></_>
        <_>
          <internalNodes>
            0 -1 52 8.0630369484424591e-03</internalNodes>
          <leafValues>
            1.0026931762695313e-01 -7.7698069810867310e-01</leafValues></_>
        <_>
          <internalNodes>
            0 -1 32 2.1922420710325241e-03</internalNodes>
          <leafValues>
            -2.7864629030227661e-01 4.3852052092552185e-01</leafValues></_></weakClassifiers></_>
    <!-- stage 5 -->
    <_>
      <maxWeakCount>7</maxWeakCount>
      <stageThreshold>-1.6335412263870239e+00</stageThreshold>
      <weakClassifiers>
        <_>
          <internalNodes>
            0 -1 7 -2.4705078452825546e-02</internalNodes>
          <leafValues>
            2.0000000298023224e-01 -8.8973385095596313e-01</leafValues></_>
        <_>
          <internalNodes>
            0 -1 53 -1.1726203410944436e-05</internalNodes>
          <leafValues>
            -7.5913465023040771e-01 -2.3536355793476105e-01</leafValues></_>
        <_>
          <internalNodes>
            0 -1 37 8.3717688918113708e-02</internalNodes>
          <leafValues>
            3.4183733165264130e-02 -8.5017925500869751e-01</leafValues></_>
        <_>
          <internalNodes>
            0 -1 73 -1.4046375872567296e-03</internalNodes>
          <leafValues>
            -8.0215781927108765e-01 1.2041121721267700e-01</leafValues></_>
        <_>
          <internalNodes>
            0 -1 8 1.7050292808562517e-03</internalNodes>
          <leafValues>
            9.5048867166042328e-02 -8.8874363899230957e-01</leafValues></_>
        <_>
          <internalNodes>
            0 -1 33 -8.7596243247389793e-04</internalNodes>
          <leafValues>
            3.0445346236228943e-01 -3.4846609830856323e-01</leafValues></_>
        <_>
          <internalNodes>
            0 -1 3 -2.0926080178469419e-03</internalNodes>
          <leafValues>
            -9.0604758262634277e-01 1.1414956301450729e-01</leafValues></_></weakClassifiers></_>
    <!-- stage 6 -->
    <_>
      <maxWeakCount>6</maxWeakCount>
      <stageThreshold>-1.9603619575500488e+00</stageThreshold>
      <weakClassifiers>
        <_>
          <internalNodes>
            0 -1 19 -1.7925117164850235e-02</internalNodes>
          <leafValues>
            2.8571429848670959e-01 -8.8983857631683350e-01</leafValues></_>
        <_>
          <internalNodes>
            0 -1 80 -2.1907314658164978e-02</internalNodes>
          <leafValues>
            4.0673536062240601e-01 -5.4476833343505859e-01</leafValues></_>
        <_>
          <internalNodes>
            0 -1 68 4.2016641236841679e-03</internalNodes>
          <leafValues>
            -3.4236630797386169e-01 3.2273808121681213e-01</leafValues></_>
        <_>
          <internalNodes>
            0 -1 41 -2.8699181973934174e-02</internalNodes>
          <leafValues>
            5.6019514799118042e-01 -2.3901234567165375e-01</leafValues></_>
        <_>
          <internalNodes>
            0 -1 4 2.7059947606176138e-03</internalNodes>
          <leafValues>
            -2.8204274177551270e-01 3.9648506045341492e-01</leafValues></_>
        <_>
          <internalNodes>
            0 -1 14 -1.0879568435484543e-04</internalNodes>
          <leafValues>
            -4.6154108643531799e-01 2.4775728583335876e-01</leafValues></_></weakClassifiers></_>
    <!-- stage 7 -->
    <_>
      <maxWeakCount>8</maxWeakCount>
      <stageThreshold>-1.7998471260070801e+00</stageThreshold>
      <weakClassifiers>
        <_>
          <internalNodes>
            0 -1 89 2.3363944143056870e-02</internalNodes>
          <leafValues>
            -8.8973385095596313e-01 2.0000000298023224e-01</leafValues></_>
        <_>
          <internalNodes>
            0 -1 75 -1.3760822825133801e-02</internalNodes>
          <leafValues>
            1.5046828985214233e-01 -5.8563590049743652e-01</leafValues></_>
        <_>
          <internalNodes>
            0 -1 30 -1.9944701343774796e-03</internalNodes>
          <leafValues>
            2.3624804615974426e-01 -3.9633408188819885e-01</leafValues></_>
        <_>
          <internalNodes>
            0 -1 11 -6.7964708432555199e-03</internalNodes>
          <leafValues>
            -1. 9.1476924717426300e-02</leafValues></_>
        <_>
          <internalNodes>
            0 -1 25 -4.3545244261622429e-03</internalNodes>
          <leafValues>
            -1. 8.4696061909198761e-02</leafValues></_>
        <_>
          <internalNodes>
            0 -1 36 1.2631185818463564e-03</internalNodes>
          <leafValues>
            1.0152503848075867e-01 -7.9312449693679810e-01</leafValues></_>
        <_>
          <internalNodes>
            0 -1 13 1.0534584522247314e-02</internalNodes>
          <leafValues>
            1.0453516244888306e-01 -8.4671300649642944e-01</leafValues></_>
        <_>
          <internalNodes>
            0 -1 59 -6.5932713914662600e-04</internalNodes>
          <leafValues>
            3.3611306548118591e-01 -3.1037649512290955e-01</leafValues></_></weakClassifiers></_>
    <!-- stage 8 -->
    <_>
      <maxWeakCount>10</maxWeakCount>
      <stageThreshold>-1.9518064260482788e+00</stageThreshold>
      <weakClassifiers>
        <_>
          <internalNodes>
            0 -1 2 -3.8758561015129089e-02</internalNodes>
          <leafValues>
            6.3636362552642822e-01 -8.9015150070190430e-01</leafValues></_>
        <_>
          <internalNodes>
            0 -1 85 2.7716029435396194e-02</internalNodes>
          <leafValues>
            -5.5354958772659302e-01 3.3977055549621582e-01</leafValues></_>
        <_>
          <internalNodes>
            0 -1 5 5.5027294903993607e-02</internalNodes>
          <leafValues>
            9.9403426051139832e-02 -6.9380348920822144e-01</leafValues></_>
        <_>
          <internalNodes>
            0 -1 17 1.3529411517083645e-02</internalNodes>
          <leafValues>
            1.1417277157306671e-01 -7.9486775398254395e-01</leafValues></_>
        <_>
          <internalNodes>
            0 -1 0 -1.8688157200813293e-01</internalNodes>
          <leafValues>
            -1. 7.5179487466812134e-02</leafValues></_>
        <_>
          <internalNodes>
            0 -1 60 -2.6401910930871964e-02</internalNodes>
          <leafValues>
            -1. 8.9231312274932861e-02</leafValues></_>
        <_>
          <internalNodes>
            0 -1 6 -1.5284096589311957e-03</internalNodes>
          <leafValues>
            3.3192521333694458e-01 -3.1258645653724670e-01</leafValues></_>
        <_>
          <internalNodes>
            0 -1 56 2.7869868790730834e-04</internalNodes>
          <leafValues>
            2.2235429286956787e-01 -4.4840937852859497e-01</leafValues></_>
        <_>
          <internalNodes>
            0 -1 42 9.3035970348864794e-04</internalNodes>
          <leafValues>
            -3.3469685912132263e-01 3.2801550626754761e-01</leafValues></_>
        <_>
          <internalNodes>
            0 -1 18 3.2442207157146186e-05</internalNodes>
          <leafValues>
            2.0960037410259247e-01 -5.3984129428863525e-01</leafValues></_></weakClassifiers></_>
    <!-- stage 9 -->
    <_>
      <maxWeakCount>8</maxWeakCount>
      <stageThreshold>-1.7610335350036621e+00</stageThreshold>
      <weakClassifiers>
        <_>
          <internalNodes>
            0 -1 1 -1.5220716595649719e-01</internalNodes>
          <leafValues>
            3.3333334326744080e-01 -8.8815164566040039e-01</leafValues></_>
        <_>
          <internalNodes>
            0 -1 65 -4.6608527190983295e-04</internalNodes>
          <leafValues>
            -1.8412473797798157e-01 -6.7956888675689697e-01</leafValues></_>
        <_>
          <internalNodes>
            0 -1 45 1.1944973841309547e-02</internalNodes>
          <leafValues>
            -3.3606380224227905e-01 3.0618450045585632e-01</leafValues></_>
        <_>
          <internalNodes>
            0 -1 51 -1.2364848516881466e-03</internalNodes>
          <leafValues>
            4.2434027791023254e-01 -2.2106476128101349e-01</leafValues></_>
        <_>
          <internalNodes>
            0 -1 81 1.3217685045674443e-04</internalNodes>
          <leafValues>
            1.9840499758720398e-01 -5.1099479198455811e-01</leafValues></_>
        <_>
          <internalNodes>
            0 -1 55 -1.3938864693045616e-02</internalNodes>
          <leafValues>
            -7.6955872774124146e-01 1.6756971180438995e-01</leafValues></_>
        <_>
          <internalNodes>
            0 -1 79 -1.9385911524295807e-02</internalNodes>
          <leafValues>
            3.9659419655799866e-01 -2.7673196792602539e-01</leafValues></_>
        <_>
          <internalNodes>
            0 -1 22 -1.4135092496871948e-01</internalNodes>
          <leafValues>
            6.7295855283737183e-01 -1.5687662363052368e-01</leafValues></_></weakClassifiers></_>
    <!-- stage 10 -->
    <_>
      <maxWeakCount>10</maxWeakCount>
      <stageThreshold>-1.8823435306549072e+00</stageThreshold>
      <weakClassifiers>
        <_>
          <internalNodes>
            0 -1 21 -6.6874951124191284e-02</internalNodes>
          <leafValues>
            5.0000000000000000e-01 -8.8479697704315186e-01</leafValues></_>
        <_>
          <internalNodes>
            0 -1 50 -1.4459509402513504e-03</internalNodes>
          <leafValues>
            -7.6543334871530533e-03 -5.8816081285476685e-01</leafValues></_>
        <_>
          <internalNodes>
            0 -1 46 1.7563651502132416e-01</internalNodes>
          <leafValues>
            -1.9510307908058167e-01 5.8991390466690063e-01</leafValues></_>
        <_>
          <internalNodes>
            0 -1 57 -7.6262322254478931e-03</internalNodes>
          <leafValues>
            2.7723550796508789e-01 -3.1217813491821289e-01</leafValues></_>
        <_>
          <internalNodes>
            0 -1 58 8.1151321530342102e-02</internalNodes>
          <leafValues>
            -1.3612723350524902e-01 6.9463562965393066e-01</leafValues></_>
        <_>
          <internalNodes>
            0 -1 49 -7.1306369500234723e-04</internalNodes>
          <leafValues>
            3.5938614606857300e-01 -2.6052963733673096e-01</leafValues></_>
        <_>
          <internalNodes>
            0 -1 83 1.2983161468582693e-05</internalNodes>
          <leafValues>
            2.3342901468276978e-01 -4.5875012874603271e-01</leafValues></_>
        <_>
          <internalNodes>
            0 -1 44 -4.4208262115716934e-03</internalNodes>
          <leafValues>
            -1. 1.2888950109481812e-01</leafValues></_>
        <_>
          <internalNodes>
            0 -1 76 -1.0516851034481078e-04</internalNodes>
          <leafValues>
            2.6185864210128784e-01 -3.9361485838890076e-01</leafValues></_>
        <_>
          <internalNodes>
            0 -1 16 1.4963334251660854e-04</internalNodes>
          <leafValues>
            -2.5916832685470581e-01 4.0338620543479919e-01</leafValues></_></weakClassifiers></_>
    <!-- stage 11 -->
    <_>
      <maxWeakCount>8</maxWeakCount>
      <stageThreshold>-1.7825529575347900e+00</stageThreshold>
      <weakClassifiers>
        <_>
          <internalNodes>
            0 -1 9 -2.3744523525238037e-02</internalNodes>
          <leafValues>
            5.8823529630899429e-02 -8.8952380418777466e-01</leafValues></_>
        <_>
          <internalNodes>
            0 -1 31 -3.0567355453968048e-02</internalNodes>
          <leafValues>
            -1.7648486793041229e-01 -6.9465202093124390e-01</leafValues></_>
        <_>
          <internalNodes>
            0 -1 71 5.1664686761796474e-03</internalNodes>
          <leafValues>
            1.6153804957866669e-02 -1.</leafValues></_>
        <_>
          <internalNodes>
            0 -1 48 1.6732470830902457e-03</internalNodes>
          <leafValues>
            -2.3150774836540222e-01 4.0005740523338318e-01</leafValues></_>
        <_>
          <internalNodes>
            0 -1 24 -1.3099994976073503e-04</internalNodes>
          <leafValues>
            -5.2521389722824097e-01 1.7860002815723419e-01</leafValues></_>
        <_>
          <internalNodes>
            0 -1 72 4.0722201811149716e-04</internalNodes>
          <leafValues>
            1.5393786132335663e-01 -6.1646401882171631e-01</leafValues></_>
        <_>
          <internalNodes>
            0 -1 28 -1.9463895587250590e-03</internalNodes>
          <leafValues>
            3.0927368998527527e-01 -2.9275575280189514e-01</leafValues></_>
        <_>
          <internalNodes>
            0 -1 61 -3.2684818143025041e-04</internalNodes>
          <leafValues>
            3.2305893301963806e-01 -3.7259998917579651e-01</leafValues></_></weakClassifiers></_></stages>
  <features>
    <_>
      <rects>
        <_>
          0 0 20 12 -1.</_>
        <_>
          10 0 10 12 2.</_></rects>
      <tilted>0</tilted></_>
    <_>
      <rects>
        <_>
          0 1 24 3 -1.</_>
        <_>
          8 1 8 3 3.</_></rects>
      <tilted>0</tilted></_>
    <_>
      <rects>
        <_>
          0 2 10 2 -1.</_>
        <_>
          5 2 5 2 2.</_></rects>
      <tilted>0</tilted></_>
    <_>
      <rects>
        <_>
          0 3 1 4 -1.</_>
        <_>
          0 5 1 2 2.</_></rects>
      <tilted>0</tilted></_>
    <_>
      <rects>
        <_>
          0 3 10 4 -1.</_>
        <_>
          0 3 5 2 2.</_>
        <_>
          5 5 5 2 2.</_></rects>
      <tilted>0</tilted></_>
    <_>
      <rects>
        <_>
          0 3 24 6 -1.</_>
        <_>
          12 3 12 6 2.</_></rects>
      <tilted>0</tilted></_>
    <_>
      <rects>
        <_>
          0 5 22 3 -1.</_>
        <_>
          0 6 22 1 3.</_></rects>
      <tilted>0</tilted></_>
    <_>
      <rects>
        <_>
          0 7 2 11 -1.</_>
        <_>
          1 7 1 11 2.</_></rects>
      <tilted>0</tilted></_>
    <_>
      <rects>
        <_>
          0 8 2 5 -1.</_>
        <_>
          1 8 1 5 2.</_></rects>
      <tilted>0</tilted></_>
    <_>
      <rects>
        <_>
          0 8 2 11 -1.</_>
        <_>
          1 8 1 11 2.</_></rects>
      <tilted>0</tilted></_>
    <_>
      <rects>
        <_>
          0 9 24 14 -1.</_>
        <_>
          8 9 8 14 3.</_></rects>
      <tilted>0</tilted></_>
    <_>
      <rects>
        <_>
          0 9 22 2 -1.</_>
        <_>
          0 9 11 1 2.</_>
        <_>
          11 10 11 1 2.</_></rects>
      <tilted>0</tilted></_>
    <_>
      <rects>
        <_>
          0 10 18 9 -1.</_>
        <_>
          6 10 6 9 3.</_></rects>
      <tilted>0</tilted></_>
    <_>
      <rects>
        <_>
          0 13 1 10 -1.</_>
        <_>
          0 18 1 5 2.</_></rects>
      <tilted>0</tilted></_>
    <_>
      <rects>
        <_>
          0 13 2 6 -1.</_>
        <_>
          1 13 1 6 2.</_></rects>
      <tilted>0</tilted></_>
    <_>
      <rects>
        <_>
          0 15 24 7 -1.</_>
        <_>
          8 15 8 7 3.</_></rects>
      <tilted>0</tilted></_>
    <_>
      <rects>
        <_>
          0 17 2 4 -1.</_>
        <_>
          0 17 1 2 2.</_>
        <_>
          1 19 1 2 2.</_></rects>
      <tilted>0</tilted></_>
    <_>
      <rects>
        <_>
          0 17 24 4 -1.</_>
        <_>
          0 17 12 2 2.</_>
        <_>
          12 19 12 2 2.</_></rects>
      <tilted>0</tilted></_>
    <_>
      <rects>
        <_>
          0 19 2 2 -1.</_>
        <_>
          0 19 1 1 2.</_>
        <_>
          1 20 1 1 2.</_></rects>
      <tilted>0</tilted></_>
    <_>
      <rects>
        <_>
          0 20 8 1 -1.</_>
        <_>
          4 20 4 1 2.</_></rects>
      <tilted>0</tilted></_>
    <_>
      <rects>
        <_>
          0 22 24 1 -1.</_>
        <_>
          8 22 8 1 3.</_></rects>
      <tilted>0</tilted></_>
    <_>
      <rects>
        <_>
          1 0 1 24 -1.</_>
        <_>
          1 8 1 8 3.</_></rects>
      <tilted>0</tilted></_>
    <_>
      <rects>
        <_>
          1 3 18 9 -1.</_>
        <_>
          7 3 6 9 3.</_></rects>
      <tilted>0</tilted></_>
    <_>
      <rects>
        <_>
          1 20 20 4 -1.</_>
        <_>
          11 20 10 4 2.</_></rects>
      <tilted>0</tilted></_>
    <_>
      <rects>
        <_>
          2 0 6 1 -1.</_>
        <_>
          5 0 3 1 2.</_></rects>
      <tilted>0</tilted></_>
    <_>
      <rects>
        <_>
          2 0 8 1 -1.</_>
        <_>
          6 0 4 1 2.</_></rects>
      <tilted>0</tilted></_>
    <_>
      <rects>
        <_>
          2 1 10 8 -1.</_>
        <_>
          2 1 5 4 2.</_>
        <_>
          7 5 5 4 2.</_></rects>
      <tilted>0</tilted></_>
    <_>
      <rects>
        <_>
          2 3 6 17 -1.</_>
        <_>
          4 3 2 17 3.</_></rects>
      <tilted>0</tilted></_>
    <_>
      <rects>
        <_>
          2 4 14 6 -1.</_>
        <_>
          2 6 14 2 3.</_></rects>
      <tilted>0</tilted></_>
    <_>
      <rects>
        <_>
          2 9 22 15 -1.</_>
        <_>
          2 14 22 5 3.</_></rects>
      <tilted>0</tilted></_>
    <_>
      <rects>
        <_>
          2 14 6 6 -1.</_>
        <_>
          2 16 6 2 3.</_></rects>
      <tilted>0</tilted></_>
    <_>
      <rects>
        <_>
          2 15 16 6 -1.</_>
        <_>
          10 15 8 6 2.</_></rects>
      <tilted>0</tilted></_>
    <_>
      <rects>
        <_>
          3 4 8 2 -1.</_>
        <_>
          3 4 4 1 2.</_>
        <_>
          7 5 4 1 2.</_></rects>
      <tilted>0</tilted></_>
    <_>
      <rects>
        <_>
          3 10 7 2 -1.</_>
        <_>
          3 11 7 1 2.</_></rects>
      <tilted>0</tilted></_>
    <_>
      <rects>
        <_>
          3 15 2 1 -1.</_>
        <_>
          4 15 1 1 2.</_></rects>
      <tilted>0</tilted></_>
    <_>
      <rects>
        <_>
          4 0 1 24 -1.</_>
        <_>
          4 8 1 8 3.</_></rects>
      <tilted>0</tilted></_>
    <_>
      <rects>
        <_>
          4 0 4 1 -1.</_>
        <_>
          6 0 2 1 2.</_></rects>
      <tilted>0</tilted></_>
    <_>
      <rects>
        <_>
          4 4 20 12 -1.</_>
        <_>
          4 4 10 6 2.</_>
        <_>
          14 10 10 6 2.</_></rects>
      <tilted>0</tilted></_>
    <_>
      <rects>
        <_>
          4 11 6 6 -1.</_>
        <_>
          4 11 3 3 2.</_>
        <_>
          7 14 3 3 2.</_></rects>
      <tilted>0</tilted></_>
    <_>
      <rects>
        <_>
          4 17 18 5 -1.</_>
        <_>
          10 17 6 5 3.</_></rects>
      <tilted>0</tilted></_>
    <_>
      <rects>
        <_>
          4 23 16 1 -1.</_>
        <_>
          12 23 8 1 2.</_></rects>
      <tilted>0</tilted></_>
    <_>
      <rects>
        <_>
          5 0 7 6 -1.</_>
        <_>
          5 3 7 3 2.</_></rects>
      <tilted>0</tilted></_>
    <_>
      <rects>
        <_>
          5 6 4 3 -1.</_>
        <_>
          7 6 2 3 2.</_></rects>
      <tilted>0</tilted></_>
    <_>
      <rects>
        <_>
          5 10 18 10 -1.</_>
        <_>
          14 10 9 10 2.</_></rects>
      <tilted>0</tilted></_>
    <_>
      <rects>
        <_>
          5 17 5 3 -1.</_>
        <_>
          5 18 5 1 3.</_></rects>
      <tilted>0</tilted></_>
    <_>
      <rects>
        <_>
          5 20 12 4 -1.</_>
        <_>
          5 22 12 2 2.</_></rects>
      <tilted>0</tilted></_>
    <_>
      <rects>
        <_>
          6 0 18 12 -1.</_>
        <_>
          15 0 9 12 2.</_></rects>
      <tilted>0</tilted></_>
    <_>
      <rects>
        <_>
          6 3 3 3 -1.</_>
        <_>
          6 4 3 1 3.</_></rects>
      <tilted>0</tilted></_>
    <_>
      <rects>
        <_>
          6 8 6 1 -1.</_>
        <_>
          9 8 3 1 2.</_></rects>
      <tilted>0</tilted></_>
    <_>
      <rects>
        <_>
          6 13 1 6 -1.</_>
        <_>
          6 16 1 3 2.</_></rects>
      <tilted>0</tilted></_>
    <_>
      <rects>
        <_>
          6 17 2 4 -1.</_>
        <_>
          6 17 1 2 2.</_>
        <_>
          7 19 1 2 2.</_></rects>
      <tilted>0</tilted></_>
    <_>
      <rects>
        <_>
          7 2 2 6 -1.</_>
        <_>
          7 2 1 3 2.</_>
        <_>
          8 5 1 3 2.</_></rects>
      <tilted>0</tilted></_>
    <_>
      <rects>
        <_>
          8 0 8 3 -1.</_>
        <_>
          12 0 4 3 2.</_></rects>
      <tilted>0</tilted></_>
    <_>
      <rects>
        <_>
          8 0 15 1 -1.</_>
        <_>
          13 0 5 1 3.</_></rects>
      <tilted>0</tilted></_>
    <_>
      <rects>
        <_>
          8 3 10 6 -1.</_>
        <_>
          13 3 5 6 2.</_></rects>
      <tilted>0</tilted></_>
    <_>
      <rects>
        <_>
          8 4 6 9 -1.</_>
        <_>
          10 4 2 9 3.</_></rects>
      <tilted>0</tilted></_>
    <_>
      <rects>
        <_>
          8 12 3 6 -1.</_>
        <_>
          8 14 3 2 3.</_></rects>
      <tilted>0</tilted></_>
    <_>
      <rects>
        <_>
          9 5 14 4 -1.</_>
        <_>
          9 7 14 2 2.</_></rects>
      <tilted>0</tilted></_>
    <_>
      <rects>
        <_>
          10 0 10 10 -1.</_>
        <_>
          10 5 10 5 2.</_></rects>
      <tilted>0</tilted></_>
    <_>
      <rects>
        <_>
          10 4 3 3 -1.</_>
        <_>
          11 4 1 3 3.</_></rects>
      <tilted>0</tilted></_>
    <_>
      <rects>
        <_>
          10 4 14 6 -1.</_>
        <_>
          10 6 14 2 3.</_></rects>
      <tilted>0</tilted></_>
    <_>
      <rects>
        <_>
          10 9 10 3 -1.</_>
        <_>
          10 10 10 1 3.</_></rects>
      <tilted>0</tilted></_>
    <_>
      <rects>
        <_>
          10 13 12 9 -1.</_>
        <_>
          14 13 4 9 3.</_></rects>
      <tilted>0</tilted></_>
    <_>
      <rects>
        <_>
          10 15 14 3 -1.</_>
        <_>
          10 16 14 1 3.</_></rects>
      <tilted>0</tilted></_>
    <_>
      <rects>
        <_>
          11 5 6 6 -1.</_>
        <_>
          13 5 2 6 3.</_></rects>
      <tilted>0</tilted></_>
    <_>
      <rects>
        <_>
          11 9 1 6 -1.</_>
        <_>
          11 11 1 2 3.</_></rects>
      <tilted>0</tilted></_>
    <_>
      <rects>
        <_>
          11 10 9 4 -1.</_>
        <_>
          14 10 3 4 3.</_></rects>
      <tilted>0</tilted></_>
    <_>
      <rects>
        <_>
          11 16 12 8 -1.</_>
        <_>
          11 20 12 4 2.</_></rects>
      <tilted>0</tilted></_>
    <_>
      <rects>
        <_>
          12 12 6 6 -1.</_>
        <_>
          12 12 3 3 2.</_>
        <_>
          15 15 3 3 2.</_></rects>
      <tilted>0</tilted></_>
    <_>
      <rects>
        <_>
          12 12 12 1 -1.</_>
        <_>
          16 12 4 1 3.</_></rects>
      <tilted>0</tilted></_>
    <_>
      <rects>
        <_>
          13 6 2 7 -1.</_>
        <_>
          14 6 1 7 2.</_></rects>
      <tilted>0</tilted></_>
    <_>
      <rects>
        <_>
          13 7 8 3 -1.</_>
        <_>
          13 8 8 1 3.</_></rects>
      <tilted>0</tilted></_>
    <_>
      <rects>
        <_>
          13 22 3 2 -1.</_>
        <_>
          14 22 1 2 3.</_></rects>
      <tilted>0</tilted></_>
    <_>
      <rects>
        <_>
          14 0 3 3 -1.</_>
        <_>
          15 0 1 3 3.</_></rects>
      <tilted>0</tilted></_>
    <_>
      <rects>
        <_>
          14 3 1 8 -1.</_>
        <_>
          14 7 1 4 2.</_></rects>
      <tilted>0</tilted></_>
    <_>
      <rects>
        <_>
          14 5 1 15 -1.</_>
        <_>
          14 10 1 5 3.</_></rects>
      <tilted>0</tilted></_>
    <_>
      <rects>
        <_>
          14 9 1 4 -1.</_>
        <_>
          14 11 1 2 2.</_></rects>
      <tilted>0</tilted></_>
    <_>
      <rects>
        <_>
          14 21 9 1 -1.</_>
        <_>
          17 21 3 1 3.</_></rects>
      <tilted>0</tilted></_>
    <_>
      <rects>
        <_>
          15 1 2 14 -1.</_>
        <_>
          15 1 1 7 2.</_>
        <_>
          16 8 1 7 2.</_></rects>
      <tilted>0</tilted></_>
    <_>
      <rects>
        <_>
          16 2 6 14 -1.</_>
        <_>
          18 2 2 14 3.</_></rects>
      <tilted>0</tilted></_>
    <_>
      <rects>
        <_>
          16 17 6 6 -1.</_>
        <_>
          16 17 3 3 2.</_>
        <_>
          19 20 3 3 2.</_></rects>
      <tilted>0</tilted></_>
    <_>
      <rects>
        <_>
          17 0 6 1 -1.</_>
        <_>
          19 0 2 1 3.</_></rects>
      <tilted>0</tilted></_>
    <_>
      <rects>
        <_>
          17 13 6 4 -1.</_>
        <_>
          19 13 2 4 3.</_></rects>
      <tilted>0</tilted></_>
    <_>
      <rects>
        <_>
          18 0 6 1 -1.</_>
        <_>
          21 0 3 1 2.</_></rects>
      <tilted>0</tilted></_>
    <_>
      <rects>
        <_>
          19 0 2 24 -1.</_>
        <_>
          19 8 2 8 3.</_></rects>
      <tilted>0</tilted></_>
    <_>
      <rects>
        <_>
          19 1 4 12 -1.</_>
        <_>
          19 1 2 6 2.</_>
        <_>
          21 7 2 6 2.</_></rects>
      <tilted>0</tilted></_>
    <_>
      <rects>
        <_>
          19 18 2 3 -1.</_>
        <_>
          19 19 2 1 3.</_></rects>
      <tilted>0</tilted></_>
    <_>
      <rects>
        <_>
          21 15 2 3 -1.</_>
        <_>
          21 16 2 1 3.</_></rects>
      <tilted>0</tilted></_>
    <_>
      <rects>
        <_>
          21 23 2 1 -1.</_>
        <_>
          22 23 1 1 2.</_></rects>
      <tilted>0</tilted></_>
    <_>
      <rects>
        <_>
          22 0 2 17 -1.</_>
        <_>
          23 0 1 17 2.</_></rects>
      <tilted>0</tilted></_>
    <_>
      <rects>
        <_>
          22 4 2 2 -1.</_>
        <_>
          23 4 1 2 2.</_></rects>
      <tilted>0</tilted></_>
    <_>
      <rects>
        <_>
          22 5 2 12 -1.</_>
        <_>
          23 5 1 12 2.</_></rects>
      <tilted>0</tilted></_></features></cascade>
</opencv_storage>
